Language model created by QuickLM on Sun Jan  3 19:00:11 EST 2016
Copyright (c) 1996-2010 Carnegie Mellon University and Alexander I. Rudnicky

The model is in standard ARPA format, designed by Doug Paul while he was at MITRE.

The code that was used to produce this language model is available in Open Source.
Please visit http://www.speech.cs.cmu.edu/tools/ for more information

The (fixed) discount mass is 0.5. The backoffs are computed using the ratio method.
This model based on a corpus of 4 sentences and 7 words

\data\
ngram 1=7
ngram 2=9
ngram 3=5

\1-grams:
-0.8129 </s> -0.3010
-0.8129 <s> -0.2285
-1.4150 HELLO -0.2285
-1.4150 JARVIS -0.2285
-1.4150 MARK -0.2285
-1.4150 UP -0.2285
-1.4150 WAKE -0.2840

\2-grams:
-0.9031 <s> HELLO 0.0000
-0.9031 <s> JARVIS 0.0000
-0.9031 <s> MARK 0.0000
-0.9031 <s> WAKE 0.0000
-0.3010 HELLO </s> -0.3010
-0.3010 JARVIS </s> -0.3010
-0.3010 MARK </s> -0.3010
-0.3010 UP </s> -0.3010
-0.3010 WAKE UP 0.0000

\3-grams:
-0.3010 <s> HELLO </s>
-0.3010 <s> JARVIS </s>
-0.3010 <s> MARK </s>
-0.3010 <s> WAKE UP
-0.3010 WAKE UP </s>

\end\
